<?xml version="1.0" encoding="UTF-8"?>
<PMML xmlns="http://www.dmg.org/PMML-4_4" version="4.4.1">
    <Header copyright="Copyright (c) 2021 Software AG" description="Default description">
        <Application name="Nyoka" version="5.0.0"/>
        <Timestamp>2021-07-13 11:24:28.636268</Timestamp>
    </Header>
    <DataDictionary numberOfFields="5">
        <DataField name="sepal_length" optype="continuous" dataType="double"/>
        <DataField name="sepal_width" optype="continuous" dataType="double"/>
        <DataField name="petal_length" optype="continuous" dataType="double"/>
        <DataField name="petal_width" optype="continuous" dataType="double"/>
        <DataField name="variety" optype="categorical" dataType="string">
            <Value value="Setosa"/>
            <Value value="Versicolor"/>
            <Value value="Virginica"/>
        </DataField>
    </DataDictionary>
    <TransformationDictionary>
        <DerivedField name="standardScaler(sepal_length)" optype="continuous" dataType="double">
            <Apply function="/">
                <Apply function="-">
                    <FieldRef field="sepal_length"/>
                    <Constant dataType="double">5.9218750000000000</Constant>
                </Apply>
                <Constant dataType="double">0.8733559704047753</Constant>
            </Apply>
        </DerivedField>
        <DerivedField name="standardScaler(sepal_width)" optype="continuous" dataType="double">
            <Apply function="/">
                <Apply function="-">
                    <FieldRef field="sepal_width"/>
                    <Constant dataType="double">3.0916666666666663</Constant>
                </Apply>
                <Constant dataType="double">0.4305197117696496</Constant>
            </Apply>
        </DerivedField>
    </TransformationDictionary>
    <MiningModel modelName="RandomForestClassifier" functionName="classification">
        <MiningSchema>
            <MiningField name="petal_length" usageType="active" optype="continuous" missingValueReplacement="3.798958333333333" missingValueTreatment="asMean"/>
            <MiningField name="petal_width" usageType="active" optype="continuous" missingValueReplacement="1.1895833333333332" missingValueTreatment="asMean"/>
            <MiningField name="sepal_length" usageType="active" optype="continuous"/>
            <MiningField name="sepal_width" usageType="active" optype="continuous"/>
            <MiningField name="variety" usageType="target" optype="categorical"/>
        </MiningSchema>
        <Output>
            <OutputField name="probability_Setosa" optype="continuous" dataType="double" feature="probability" value="Setosa"/>
            <OutputField name="probability_Versicolor" optype="continuous" dataType="double" feature="probability" value="Versicolor"/>
            <OutputField name="probability_Virginica" optype="continuous" dataType="double" feature="probability" value="Virginica"/>
            <OutputField name="predicted_variety" optype="categorical" dataType="string" feature="predictedValue"/>
        </Output>
        <Segmentation multipleModelMethod="average" missingThreshold="1">
            <Segment id="0" weight="1">
                <True/>
                <TreeModel modelName="DecisionTreeClassifier" functionName="classification" missingValuePenalty="1.0">
                    <MiningSchema>
                        <MiningField name="sepal_length" usageType="active"/>
                        <MiningField name="sepal_width" usageType="active"/>
                        <MiningField name="petal_length" usageType="active"/>
                        <MiningField name="petal_width" usageType="active"/>
                    </MiningSchema>
                    <Node id="0" recordCount="63.0">
                        <True/>
                        <Node id="1" score="Setosa" recordCount="21.0">
                            <SimplePredicate field="petal_length" operator="lessOrEqual" value="2.7499999403953552"/>
                            <ScoreDistribution value="Setosa" recordCount="31.0" confidence="1.0"/>
                            <ScoreDistribution value="Versicolor" recordCount="0.0" confidence="0.0"/>
                            <ScoreDistribution value="Virginica" recordCount="0.0" confidence="0.0"/>
                        </Node>
                        <Node id="2" recordCount="42.0">
                            <SimplePredicate field="petal_length" operator="greaterThan" value="2.7499999403953552"/>
                            <Node id="3" recordCount="24.0">
                                <SimplePredicate field="petal_width" operator="lessOrEqual" value="1.75"/>
                                <Node id="4" score="Virginica" recordCount="1.0">
                                    <SimplePredicate field="standardScaler(sepal_length)" operator="lessOrEqual" value="-0.9983042478561401"/>
                                    <ScoreDistribution value="Setosa" recordCount="0.0" confidence="0.0"/>
                                    <ScoreDistribution value="Versicolor" recordCount="0.0" confidence="0.0"/>
                                    <ScoreDistribution value="Virginica" recordCount="1.0" confidence="1.0"/>
                                </Node>
                                <Node id="5" recordCount="23.0">
                                    <SimplePredicate field="standardScaler(sepal_length)" operator="greaterThan" value="-0.9983042478561401"/>
                                    <Node id="6" score="Versicolor" recordCount="22.0">
                                        <SimplePredicate field="standardScaler(sepal_length)" operator="lessOrEqual" value="1.3489631414413452"/>
                                        <ScoreDistribution value="Setosa" recordCount="0.0" confidence="0.0"/>
                                        <ScoreDistribution value="Versicolor" recordCount="36.0" confidence="1.0"/>
                                        <ScoreDistribution value="Virginica" recordCount="0.0" confidence="0.0"/>
                                    </Node>
                                    <Node id="7" score="Virginica" recordCount="1.0">
                                        <SimplePredicate field="standardScaler(sepal_length)" operator="greaterThan" value="1.3489631414413452"/>
                                        <ScoreDistribution value="Setosa" recordCount="0.0" confidence="0.0"/>
                                        <ScoreDistribution value="Versicolor" recordCount="0.0" confidence="0.0"/>
                                        <ScoreDistribution value="Virginica" recordCount="1.0" confidence="1.0"/>
                                    </Node>
                                </Node>
                            </Node>
                            <Node id="8" recordCount="18.0">
                                <SimplePredicate field="petal_width" operator="greaterThan" value="1.75"/>
                                <Node id="9" recordCount="2.0">
                                    <SimplePredicate field="petal_length" operator="lessOrEqual" value="4.8500001430511475"/>
                                    <Node id="10" score="Virginica" recordCount="1.0">
                                        <SimplePredicate field="standardScaler(sepal_width)" operator="lessOrEqual" value="0.01935645192861557"/>
                                        <ScoreDistribution value="Setosa" recordCount="0.0" confidence="0.0"/>
                                        <ScoreDistribution value="Versicolor" recordCount="0.0" confidence="0.0"/>
                                        <ScoreDistribution value="Virginica" recordCount="2.0" confidence="1.0"/>
                                    </Node>
                                    <Node id="11" score="Versicolor" recordCount="1.0">
                                        <SimplePredicate field="standardScaler(sepal_width)" operator="greaterThan" value="0.01935645192861557"/>
                                        <ScoreDistribution value="Setosa" recordCount="0.0" confidence="0.0"/>
                                        <ScoreDistribution value="Versicolor" recordCount="2.0" confidence="1.0"/>
                                        <ScoreDistribution value="Virginica" recordCount="0.0" confidence="0.0"/>
                                    </Node>
                                </Node>
                                <Node id="12" score="Virginica" recordCount="16.0">
                                    <SimplePredicate field="petal_length" operator="greaterThan" value="4.8500001430511475"/>
                                    <ScoreDistribution value="Setosa" recordCount="0.0" confidence="0.0"/>
                                    <ScoreDistribution value="Versicolor" recordCount="0.0" confidence="0.0"/>
                                    <ScoreDistribution value="Virginica" recordCount="23.0" confidence="1.0"/>
                                </Node>
                            </Node>
                        </Node>
                    </Node>
                </TreeModel>
            </Segment>
            <Segment id="1" weight="1">
                <True/>
                <TreeModel modelName="DecisionTreeClassifier" functionName="classification" missingValuePenalty="1.0">
                    <MiningSchema>
                        <MiningField name="sepal_length" usageType="active"/>
                        <MiningField name="sepal_width" usageType="active"/>
                        <MiningField name="petal_length" usageType="active"/>
                        <MiningField name="petal_width" usageType="active"/>
                    </MiningSchema>
                    <Node id="0" recordCount="54.0">
                        <True/>
                        <Node id="1" recordCount="39.0">
                            <SimplePredicate field="standardScaler(sepal_width)" operator="lessOrEqual" value="0.6000499576330185"/>
                            <Node id="2" recordCount="21.0">
                                <SimplePredicate field="petal_width" operator="lessOrEqual" value="1.550000011920929"/>
                                <Node id="3" score="Setosa" recordCount="4.0">
                                    <SimplePredicate field="petal_width" operator="lessOrEqual" value="0.6000000014901161"/>
                                    <ScoreDistribution value="Setosa" recordCount="5.0" confidence="1.0"/>
                                    <ScoreDistribution value="Versicolor" recordCount="0.0" confidence="0.0"/>
                                    <ScoreDistribution value="Virginica" recordCount="0.0" confidence="0.0"/>
                                </Node>
                                <Node id="4" score="Versicolor" recordCount="17.0">
                                    <SimplePredicate field="petal_width" operator="greaterThan" value="0.6000000014901161"/>
                                    <ScoreDistribution value="Setosa" recordCount="0.0" confidence="0.0"/>
                                    <ScoreDistribution value="Versicolor" recordCount="38.0" confidence="1.0"/>
                                    <ScoreDistribution value="Virginica" recordCount="0.0" confidence="0.0"/>
                                </Node>
                            </Node>
                            <Node id="5" recordCount="18.0">
                                <SimplePredicate field="petal_width" operator="greaterThan" value="1.550000011920929"/>
                                <Node id="6" recordCount="2.0">
                                    <SimplePredicate field="petal_width" operator="lessOrEqual" value="1.75"/>
                                    <Node id="7" score="Versicolor" recordCount="1.0">
                                        <SimplePredicate field="petal_length" operator="lessOrEqual" value="5.400000095367432"/>
                                        <ScoreDistribution value="Setosa" recordCount="0.0" confidence="0.0"/>
                                        <ScoreDistribution value="Versicolor" recordCount="1.0" confidence="1.0"/>
                                        <ScoreDistribution value="Virginica" recordCount="0.0" confidence="0.0"/>
                                    </Node>
                                    <Node id="8" score="Virginica" recordCount="1.0">
                                        <SimplePredicate field="petal_length" operator="greaterThan" value="5.400000095367432"/>
                                        <ScoreDistribution value="Setosa" recordCount="0.0" confidence="0.0"/>
                                        <ScoreDistribution value="Versicolor" recordCount="0.0" confidence="0.0"/>
                                        <ScoreDistribution value="Virginica" recordCount="3.0" confidence="1.0"/>
                                    </Node>
                                </Node>
                                <Node id="9" score="Virginica" recordCount="16.0">
                                    <SimplePredicate field="petal_width" operator="greaterThan" value="1.75"/>
                                    <ScoreDistribution value="Setosa" recordCount="0.0" confidence="0.0"/>
                                    <ScoreDistribution value="Versicolor" recordCount="0.0" confidence="0.0"/>
                                    <ScoreDistribution value="Virginica" recordCount="27.0" confidence="1.0"/>
                                </Node>
                            </Node>
                        </Node>
                        <Node id="10" recordCount="15.0">
                            <SimplePredicate field="standardScaler(sepal_width)" operator="greaterThan" value="0.6000499576330185"/>
                            <Node id="11" score="Setosa" recordCount="13.0">
                                <SimplePredicate field="petal_width" operator="lessOrEqual" value="1.2000000029802322"/>
                                <ScoreDistribution value="Setosa" recordCount="18.0" confidence="1.0"/>
                                <ScoreDistribution value="Versicolor" recordCount="0.0" confidence="0.0"/>
                                <ScoreDistribution value="Virginica" recordCount="0.0" confidence="0.0"/>
                            </Node>
                            <Node id="12" score="Virginica" recordCount="2.0">
                                <SimplePredicate field="petal_width" operator="greaterThan" value="1.2000000029802322"/>
                                <ScoreDistribution value="Setosa" recordCount="0.0" confidence="0.0"/>
                                <ScoreDistribution value="Versicolor" recordCount="0.0" confidence="0.0"/>
                                <ScoreDistribution value="Virginica" recordCount="4.0" confidence="1.0"/>
                            </Node>
                        </Node>
                    </Node>
                </TreeModel>
            </Segment>
            <Segment id="2" weight="1">
                <True/>
                <TreeModel modelName="DecisionTreeClassifier" functionName="classification" missingValuePenalty="1.0">
                    <MiningSchema>
                        <MiningField name="sepal_length" usageType="active"/>
                        <MiningField name="sepal_width" usageType="active"/>
                        <MiningField name="petal_length" usageType="active"/>
                        <MiningField name="petal_width" usageType="active"/>
                    </MiningSchema>
                    <Node id="0" recordCount="61.0">
                        <True/>
                        <Node id="1" score="Setosa" recordCount="18.0">
                            <SimplePredicate field="petal_width" operator="lessOrEqual" value="0.7000000029802322"/>
                            <ScoreDistribution value="Setosa" recordCount="31.0" confidence="1.0"/>
                            <ScoreDistribution value="Versicolor" recordCount="0.0" confidence="0.0"/>
                            <ScoreDistribution value="Virginica" recordCount="0.0" confidence="0.0"/>
                        </Node>
                        <Node id="2" recordCount="43.0">
                            <SimplePredicate field="petal_width" operator="greaterThan" value="0.7000000029802322"/>
                            <Node id="3" score="Versicolor" recordCount="19.0">
                                <SimplePredicate field="petal_length" operator="lessOrEqual" value="4.75"/>
                                <ScoreDistribution value="Setosa" recordCount="0.0" confidence="0.0"/>
                                <ScoreDistribution value="Versicolor" recordCount="28.0" confidence="1.0"/>
                                <ScoreDistribution value="Virginica" recordCount="0.0" confidence="0.0"/>
                            </Node>
                            <Node id="4" recordCount="24.0">
                                <SimplePredicate field="petal_length" operator="greaterThan" value="4.75"/>
                                <Node id="5" recordCount="3.0">
                                    <SimplePredicate field="petal_width" operator="lessOrEqual" value="1.649999976158142"/>
                                    <Node id="6" score="Virginica" recordCount="1.0">
                                        <SimplePredicate field="standardScaler(sepal_length)" operator="lessOrEqual" value="0.6047076284885406"/>
                                        <ScoreDistribution value="Setosa" recordCount="0.0" confidence="0.0"/>
                                        <ScoreDistribution value="Versicolor" recordCount="0.0" confidence="0.0"/>
                                        <ScoreDistribution value="Virginica" recordCount="2.0" confidence="1.0"/>
                                    </Node>
                                    <Node id="7" score="Versicolor" recordCount="2.0">
                                        <SimplePredicate field="standardScaler(sepal_length)" operator="greaterThan" value="0.6047076284885406"/>
                                        <ScoreDistribution value="Setosa" recordCount="0.0" confidence="0.0"/>
                                        <ScoreDistribution value="Versicolor" recordCount="3.0" confidence="1.0"/>
                                        <ScoreDistribution value="Virginica" recordCount="0.0" confidence="0.0"/>
                                    </Node>
                                </Node>
                                <Node id="8" recordCount="21.0">
                                    <SimplePredicate field="petal_width" operator="greaterThan" value="1.649999976158142"/>
                                    <Node id="9" recordCount="2.0">
                                        <SimplePredicate field="petal_length" operator="lessOrEqual" value="4.8500001430511475"/>
                                        <Node id="10" score="Virginica" recordCount="1.0">
                                            <SimplePredicate field="standardScaler(sepal_width)" operator="lessOrEqual" value="0.01935645192861557"/>
                                            <ScoreDistribution value="Setosa" recordCount="0.0" confidence="0.0"/>
                                            <ScoreDistribution value="Versicolor" recordCount="0.0" confidence="0.0"/>
                                            <ScoreDistribution value="Virginica" recordCount="2.0" confidence="1.0"/>
                                        </Node>
                                        <Node id="11" score="Versicolor" recordCount="1.0">
                                            <SimplePredicate field="standardScaler(sepal_width)" operator="greaterThan" value="0.01935645192861557"/>
                                            <ScoreDistribution value="Setosa" recordCount="0.0" confidence="0.0"/>
                                            <ScoreDistribution value="Versicolor" recordCount="1.0" confidence="1.0"/>
                                            <ScoreDistribution value="Virginica" recordCount="0.0" confidence="0.0"/>
                                        </Node>
                                    </Node>
                                    <Node id="12" score="Virginica" recordCount="19.0">
                                        <SimplePredicate field="petal_length" operator="greaterThan" value="4.8500001430511475"/>
                                        <ScoreDistribution value="Setosa" recordCount="0.0" confidence="0.0"/>
                                        <ScoreDistribution value="Versicolor" recordCount="0.0" confidence="0.0"/>
                                        <ScoreDistribution value="Virginica" recordCount="29.0" confidence="1.0"/>
                                    </Node>
                                </Node>
                            </Node>
                        </Node>
                    </Node>
                </TreeModel>
            </Segment>
            <Segment id="3" weight="1">
                <True/>
                <TreeModel modelName="DecisionTreeClassifier" functionName="classification" missingValuePenalty="1.0">
                    <MiningSchema>
                        <MiningField name="sepal_length" usageType="active"/>
                        <MiningField name="sepal_width" usageType="active"/>
                        <MiningField name="petal_length" usageType="active"/>
                        <MiningField name="petal_width" usageType="active"/>
                    </MiningSchema>
                    <Node id="0" recordCount="61.0">
                        <True/>
                        <Node id="1" score="Setosa" recordCount="21.0">
                            <SimplePredicate field="petal_width" operator="lessOrEqual" value="0.7000000029802322"/>
                            <ScoreDistribution value="Setosa" recordCount="30.0" confidence="1.0"/>
                            <ScoreDistribution value="Versicolor" recordCount="0.0" confidence="0.0"/>
                            <ScoreDistribution value="Virginica" recordCount="0.0" confidence="0.0"/>
                        </Node>
                        <Node id="2" recordCount="40.0">
                            <SimplePredicate field="petal_width" operator="greaterThan" value="0.7000000029802322"/>
                            <Node id="3" recordCount="22.0">
                                <SimplePredicate field="petal_length" operator="lessOrEqual" value="4.8500001430511475"/>
                                <Node id="4" score="Versicolor" recordCount="20.0">
                                    <SimplePredicate field="petal_width" operator="lessOrEqual" value="1.6500000357627869"/>
                                    <ScoreDistribution value="Setosa" recordCount="0.0" confidence="0.0"/>
                                    <ScoreDistribution value="Versicolor" recordCount="33.0" confidence="1.0"/>
                                    <ScoreDistribution value="Virginica" recordCount="0.0" confidence="0.0"/>
                                </Node>
                                <Node id="5" recordCount="2.0">
                                    <SimplePredicate field="petal_width" operator="greaterThan" value="1.6500000357627869"/>
                                    <Node id="6" score="Virginica" recordCount="1.0">
                                        <SimplePredicate field="standardScaler(sepal_width)" operator="lessOrEqual" value="-0.5613370686769485"/>
                                        <ScoreDistribution value="Setosa" recordCount="0.0" confidence="0.0"/>
                                        <ScoreDistribution value="Versicolor" recordCount="0.0" confidence="0.0"/>
                                        <ScoreDistribution value="Virginica" recordCount="1.0" confidence="1.0"/>
                                    </Node>
                                    <Node id="7" score="Versicolor" recordCount="1.0">
                                        <SimplePredicate field="standardScaler(sepal_width)" operator="greaterThan" value="-0.5613370686769485"/>
                                        <ScoreDistribution value="Setosa" recordCount="0.0" confidence="0.0"/>
                                        <ScoreDistribution value="Versicolor" recordCount="3.0" confidence="1.0"/>
                                        <ScoreDistribution value="Virginica" recordCount="0.0" confidence="0.0"/>
                                    </Node>
                                </Node>
                            </Node>
                            <Node id="8" score="Virginica" recordCount="18.0">
                                <SimplePredicate field="petal_length" operator="greaterThan" value="4.8500001430511475"/>
                                <ScoreDistribution value="Setosa" recordCount="0.0" confidence="0.0"/>
                                <ScoreDistribution value="Versicolor" recordCount="0.0" confidence="0.0"/>
                                <ScoreDistribution value="Virginica" recordCount="29.0" confidence="1.0"/>
                            </Node>
                        </Node>
                    </Node>
                </TreeModel>
            </Segment>
            <Segment id="4" weight="1">
                <True/>
                <TreeModel modelName="DecisionTreeClassifier" functionName="classification" missingValuePenalty="1.0">
                    <MiningSchema>
                        <MiningField name="sepal_length" usageType="active"/>
                        <MiningField name="sepal_width" usageType="active"/>
                        <MiningField name="petal_length" usageType="active"/>
                        <MiningField name="petal_width" usageType="active"/>
                    </MiningSchema>
                    <Node id="0" recordCount="54.0">
                        <True/>
                        <Node id="1" score="Setosa" recordCount="19.0">
                            <SimplePredicate field="petal_length" operator="lessOrEqual" value="2.599999964237213"/>
                            <ScoreDistribution value="Setosa" recordCount="35.0" confidence="1.0"/>
                            <ScoreDistribution value="Versicolor" recordCount="0.0" confidence="0.0"/>
                            <ScoreDistribution value="Virginica" recordCount="0.0" confidence="0.0"/>
                        </Node>
                        <Node id="2" recordCount="35.0">
                            <SimplePredicate field="petal_length" operator="greaterThan" value="2.599999964237213"/>
                            <Node id="3" recordCount="17.0">
                                <SimplePredicate field="petal_width" operator="lessOrEqual" value="1.75"/>
                                <Node id="4" score="Versicolor" recordCount="15.0">
                                    <SimplePredicate field="petal_width" operator="lessOrEqual" value="1.600000023841858"/>
                                    <ScoreDistribution value="Setosa" recordCount="0.0" confidence="0.0"/>
                                    <ScoreDistribution value="Versicolor" recordCount="25.0" confidence="1.0"/>
                                    <ScoreDistribution value="Virginica" recordCount="0.0" confidence="0.0"/>
                                </Node>
                                <Node id="5" recordCount="2.0">
                                    <SimplePredicate field="petal_width" operator="greaterThan" value="1.600000023841858"/>
                                    <Node id="6" score="Virginica" recordCount="1.0">
                                        <SimplePredicate field="standardScaler(sepal_length)" operator="lessOrEqual" value="-0.13954788446426392"/>
                                        <ScoreDistribution value="Setosa" recordCount="0.0" confidence="0.0"/>
                                        <ScoreDistribution value="Versicolor" recordCount="0.0" confidence="0.0"/>
                                        <ScoreDistribution value="Virginica" recordCount="1.0" confidence="1.0"/>
                                    </Node>
                                    <Node id="7" score="Versicolor" recordCount="1.0">
                                        <SimplePredicate field="standardScaler(sepal_length)" operator="greaterThan" value="-0.13954788446426392"/>
                                        <ScoreDistribution value="Setosa" recordCount="0.0" confidence="0.0"/>
                                        <ScoreDistribution value="Versicolor" recordCount="4.0" confidence="1.0"/>
                                        <ScoreDistribution value="Virginica" recordCount="0.0" confidence="0.0"/>
                                    </Node>
                                </Node>
                            </Node>
                            <Node id="8" recordCount="18.0">
                                <SimplePredicate field="petal_width" operator="greaterThan" value="1.75"/>
                                <Node id="9" score="Virginica" recordCount="14.0">
                                    <SimplePredicate field="standardScaler(sepal_width)" operator="lessOrEqual" value="0.13549515139311552"/>
                                    <ScoreDistribution value="Setosa" recordCount="0.0" confidence="0.0"/>
                                    <ScoreDistribution value="Versicolor" recordCount="0.0" confidence="0.0"/>
                                    <ScoreDistribution value="Virginica" recordCount="26.0" confidence="1.0"/>
                                </Node>
                                <Node id="10" recordCount="4.0">
                                    <SimplePredicate field="standardScaler(sepal_width)" operator="greaterThan" value="0.13549515139311552"/>
                                    <Node id="11" score="Versicolor" recordCount="1.0">
                                        <SimplePredicate field="petal_width" operator="lessOrEqual" value="1.9499999284744263"/>
                                        <ScoreDistribution value="Setosa" recordCount="0.0" confidence="0.0"/>
                                        <ScoreDistribution value="Versicolor" recordCount="1.0" confidence="1.0"/>
                                        <ScoreDistribution value="Virginica" recordCount="0.0" confidence="0.0"/>
                                    </Node>
                                    <Node id="12" score="Virginica" recordCount="3.0">
                                        <SimplePredicate field="petal_width" operator="greaterThan" value="1.9499999284744263"/>
                                        <ScoreDistribution value="Setosa" recordCount="0.0" confidence="0.0"/>
                                        <ScoreDistribution value="Versicolor" recordCount="0.0" confidence="0.0"/>
                                        <ScoreDistribution value="Virginica" recordCount="4.0" confidence="1.0"/>
                                    </Node>
                                </Node>
                            </Node>
                        </Node>
                    </Node>
                </TreeModel>
            </Segment>
            <Segment id="5" weight="1">
                <True/>
                <TreeModel modelName="DecisionTreeClassifier" functionName="classification" missingValuePenalty="1.0">
                    <MiningSchema>
                        <MiningField name="sepal_length" usageType="active"/>
                        <MiningField name="sepal_width" usageType="active"/>
                        <MiningField name="petal_length" usageType="active"/>
                        <MiningField name="petal_width" usageType="active"/>
                    </MiningSchema>
                    <Node id="0" recordCount="61.0">
                        <True/>
                        <Node id="1" score="Setosa" recordCount="24.0">
                            <SimplePredicate field="petal_length" operator="lessOrEqual" value="2.599999964237213"/>
                            <ScoreDistribution value="Setosa" recordCount="40.0" confidence="1.0"/>
                            <ScoreDistribution value="Versicolor" recordCount="0.0" confidence="0.0"/>
                            <ScoreDistribution value="Virginica" recordCount="0.0" confidence="0.0"/>
                        </Node>
                        <Node id="2" recordCount="37.0">
                            <SimplePredicate field="petal_length" operator="greaterThan" value="2.599999964237213"/>
                            <Node id="3" recordCount="23.0">
                                <SimplePredicate field="petal_length" operator="lessOrEqual" value="5.049999952316284"/>
                                <Node id="4" score="Versicolor" recordCount="19.0">
                                    <SimplePredicate field="petal_width" operator="lessOrEqual" value="1.75"/>
                                    <ScoreDistribution value="Setosa" recordCount="0.0" confidence="0.0"/>
                                    <ScoreDistribution value="Versicolor" recordCount="29.0" confidence="1.0"/>
                                    <ScoreDistribution value="Virginica" recordCount="0.0" confidence="0.0"/>
                                </Node>
                                <Node id="5" recordCount="4.0">
                                    <SimplePredicate field="petal_width" operator="greaterThan" value="1.75"/>
                                    <Node id="6" recordCount="2.0">
                                        <SimplePredicate field="standardScaler(sepal_length)" operator="lessOrEqual" value="0.03220336325466633"/>
                                        <Node id="7" score="Versicolor" recordCount="1.0">
                                            <SimplePredicate field="petal_width" operator="lessOrEqual" value="1.899999976158142"/>
                                            <ScoreDistribution value="Setosa" recordCount="0.0" confidence="0.0"/>
                                            <ScoreDistribution value="Versicolor" recordCount="1.0" confidence="1.0"/>
                                            <ScoreDistribution value="Virginica" recordCount="0.0" confidence="0.0"/>
                                        </Node>
                                        <Node id="8" score="Virginica" recordCount="1.0">
                                            <SimplePredicate field="petal_width" operator="greaterThan" value="1.899999976158142"/>
                                            <ScoreDistribution value="Setosa" recordCount="0.0" confidence="0.0"/>
                                            <ScoreDistribution value="Versicolor" recordCount="0.0" confidence="0.0"/>
                                            <ScoreDistribution value="Virginica" recordCount="1.0" confidence="1.0"/>
                                        </Node>
                                    </Node>
                                    <Node id="9" score="Virginica" recordCount="2.0">
                                        <SimplePredicate field="standardScaler(sepal_length)" operator="greaterThan" value="0.03220336325466633"/>
                                        <ScoreDistribution value="Setosa" recordCount="0.0" confidence="0.0"/>
                                        <ScoreDistribution value="Versicolor" recordCount="0.0" confidence="0.0"/>
                                        <ScoreDistribution value="Virginica" recordCount="3.0" confidence="1.0"/>
                                    </Node>
                                </Node>
                            </Node>
                            <Node id="10" score="Virginica" recordCount="14.0">
                                <SimplePredicate field="petal_length" operator="greaterThan" value="5.049999952316284"/>
                                <ScoreDistribution value="Setosa" recordCount="0.0" confidence="0.0"/>
                                <ScoreDistribution value="Versicolor" recordCount="0.0" confidence="0.0"/>
                                <ScoreDistribution value="Virginica" recordCount="22.0" confidence="1.0"/>
                            </Node>
                        </Node>
                    </Node>
                </TreeModel>
            </Segment>
            <Segment id="6" weight="1">
                <True/>
                <TreeModel modelName="DecisionTreeClassifier" functionName="classification" missingValuePenalty="1.0">
                    <MiningSchema>
                        <MiningField name="sepal_length" usageType="active"/>
                        <MiningField name="sepal_width" usageType="active"/>
                        <MiningField name="petal_length" usageType="active"/>
                        <MiningField name="petal_width" usageType="active"/>
                    </MiningSchema>
                    <Node id="0" recordCount="65.0">
                        <True/>
                        <Node id="1" score="Setosa" recordCount="23.0">
                            <SimplePredicate field="petal_width" operator="lessOrEqual" value="0.7000000029802322"/>
                            <ScoreDistribution value="Setosa" recordCount="33.0" confidence="1.0"/>
                            <ScoreDistribution value="Versicolor" recordCount="0.0" confidence="0.0"/>
                            <ScoreDistribution value="Virginica" recordCount="0.0" confidence="0.0"/>
                        </Node>
                        <Node id="2" recordCount="42.0">
                            <SimplePredicate field="petal_width" operator="greaterThan" value="0.7000000029802322"/>
                            <Node id="3" recordCount="21.0">
                                <SimplePredicate field="petal_length" operator="lessOrEqual" value="4.8500001430511475"/>
                                <Node id="4" score="Versicolor" recordCount="18.0">
                                    <SimplePredicate field="petal_width" operator="lessOrEqual" value="1.6500000357627869"/>
                                    <ScoreDistribution value="Setosa" recordCount="0.0" confidence="0.0"/>
                                    <ScoreDistribution value="Versicolor" recordCount="25.0" confidence="1.0"/>
                                    <ScoreDistribution value="Virginica" recordCount="0.0" confidence="0.0"/>
                                </Node>
                                <Node id="5" recordCount="3.0">
                                    <SimplePredicate field="petal_width" operator="greaterThan" value="1.6500000357627869"/>
                                    <Node id="6" score="Virginica" recordCount="1.0">
                                        <SimplePredicate field="petal_length" operator="lessOrEqual" value="4.650000095367432"/>
                                        <ScoreDistribution value="Setosa" recordCount="0.0" confidence="0.0"/>
                                        <ScoreDistribution value="Versicolor" recordCount="0.0" confidence="0.0"/>
                                        <ScoreDistribution value="Virginica" recordCount="1.0" confidence="1.0"/>
                                    </Node>
                                    <Node id="7" recordCount="2.0">
                                        <SimplePredicate field="petal_length" operator="greaterThan" value="4.650000095367432"/>
                                        <Node id="8" score="Versicolor" recordCount="1.0">
                                            <SimplePredicate field="standardScaler(sepal_length)" operator="lessOrEqual" value="0.03220336325466633"/>
                                            <ScoreDistribution value="Setosa" recordCount="0.0" confidence="0.0"/>
                                            <ScoreDistribution value="Versicolor" recordCount="1.0" confidence="1.0"/>
                                            <ScoreDistribution value="Virginica" recordCount="0.0" confidence="0.0"/>
                                        </Node>
                                        <Node id="9" score="Virginica" recordCount="1.0">
                                            <SimplePredicate field="standardScaler(sepal_length)" operator="greaterThan" value="0.03220336325466633"/>
                                            <ScoreDistribution value="Setosa" recordCount="0.0" confidence="0.0"/>
                                            <ScoreDistribution value="Versicolor" recordCount="0.0" confidence="0.0"/>
                                            <ScoreDistribution value="Virginica" recordCount="1.0" confidence="1.0"/>
                                        </Node>
                                    </Node>
                                </Node>
                            </Node>
                            <Node id="10" recordCount="21.0">
                                <SimplePredicate field="petal_length" operator="greaterThan" value="4.8500001430511475"/>
                                <Node id="11" recordCount="4.0">
                                    <SimplePredicate field="petal_width" operator="lessOrEqual" value="1.75"/>
                                    <Node id="12" recordCount="3.0">
                                        <SimplePredicate field="standardScaler(sepal_length)" operator="lessOrEqual" value="1.2917127013206482"/>
                                        <Node id="13" score="Versicolor" recordCount="2.0">
                                            <SimplePredicate field="petal_length" operator="lessOrEqual" value="5.299999952316284"/>
                                            <ScoreDistribution value="Setosa" recordCount="0.0" confidence="0.0"/>
                                            <ScoreDistribution value="Versicolor" recordCount="3.0" confidence="1.0"/>
                                            <ScoreDistribution value="Virginica" recordCount="0.0" confidence="0.0"/>
                                        </Node>
                                        <Node id="14" score="Virginica" recordCount="1.0">
                                            <SimplePredicate field="petal_length" operator="greaterThan" value="5.299999952316284"/>
                                            <ScoreDistribution value="Setosa" recordCount="0.0" confidence="0.0"/>
                                            <ScoreDistribution value="Versicolor" recordCount="0.0" confidence="0.0"/>
                                            <ScoreDistribution value="Virginica" recordCount="1.0" confidence="1.0"/>
                                        </Node>
                                    </Node>
                                    <Node id="15" score="Virginica" recordCount="1.0">
                                        <SimplePredicate field="standardScaler(sepal_length)" operator="greaterThan" value="1.2917127013206482"/>
                                        <ScoreDistribution value="Setosa" recordCount="0.0" confidence="0.0"/>
                                        <ScoreDistribution value="Versicolor" recordCount="0.0" confidence="0.0"/>
                                        <ScoreDistribution value="Virginica" recordCount="2.0" confidence="1.0"/>
                                    </Node>
                                </Node>
                                <Node id="16" score="Virginica" recordCount="17.0">
                                    <SimplePredicate field="petal_width" operator="greaterThan" value="1.75"/>
                                    <ScoreDistribution value="Setosa" recordCount="0.0" confidence="0.0"/>
                                    <ScoreDistribution value="Versicolor" recordCount="0.0" confidence="0.0"/>
                                    <ScoreDistribution value="Virginica" recordCount="29.0" confidence="1.0"/>
                                </Node>
                            </Node>
                        </Node>
                    </Node>
                </TreeModel>
            </Segment>
            <Segment id="7" weight="1">
                <True/>
                <TreeModel modelName="DecisionTreeClassifier" functionName="classification" missingValuePenalty="1.0">
                    <MiningSchema>
                        <MiningField name="sepal_length" usageType="active"/>
                        <MiningField name="sepal_width" usageType="active"/>
                        <MiningField name="petal_length" usageType="active"/>
                        <MiningField name="petal_width" usageType="active"/>
                    </MiningSchema>
                    <Node id="0" recordCount="67.0">
                        <True/>
                        <Node id="1" score="Setosa" recordCount="23.0">
                            <SimplePredicate field="petal_width" operator="lessOrEqual" value="0.75"/>
                            <ScoreDistribution value="Setosa" recordCount="32.0" confidence="1.0"/>
                            <ScoreDistribution value="Versicolor" recordCount="0.0" confidence="0.0"/>
                            <ScoreDistribution value="Virginica" recordCount="0.0" confidence="0.0"/>
                        </Node>
                        <Node id="2" recordCount="44.0">
                            <SimplePredicate field="petal_width" operator="greaterThan" value="0.75"/>
                            <Node id="3" recordCount="20.0">
                                <SimplePredicate field="petal_width" operator="lessOrEqual" value="1.550000011920929"/>
                                <Node id="4" score="Versicolor" recordCount="19.0">
                                    <SimplePredicate field="petal_length" operator="lessOrEqual" value="5.200000047683716"/>
                                    <ScoreDistribution value="Setosa" recordCount="0.0" confidence="0.0"/>
                                    <ScoreDistribution value="Versicolor" recordCount="29.0" confidence="1.0"/>
                                    <ScoreDistribution value="Virginica" recordCount="0.0" confidence="0.0"/>
                                </Node>
                                <Node id="5" score="Virginica" recordCount="1.0">
                                    <SimplePredicate field="petal_length" operator="greaterThan" value="5.200000047683716"/>
                                    <ScoreDistribution value="Setosa" recordCount="0.0" confidence="0.0"/>
                                    <ScoreDistribution value="Versicolor" recordCount="0.0" confidence="0.0"/>
                                    <ScoreDistribution value="Virginica" recordCount="1.0" confidence="1.0"/>
                                </Node>
                            </Node>
                            <Node id="6" recordCount="24.0">
                                <SimplePredicate field="petal_width" operator="greaterThan" value="1.550000011920929"/>
                                <Node id="7" recordCount="7.0">
                                    <SimplePredicate field="petal_width" operator="lessOrEqual" value="1.8499999642372131"/>
                                    <Node id="8" recordCount="2.0">
                                        <SimplePredicate field="petal_length" operator="lessOrEqual" value="4.8500001430511475"/>
                                        <Node id="9" score="Virginica" recordCount="1.0">
                                            <SimplePredicate field="standardScaler(sepal_width)" operator="lessOrEqual" value="-0.5613370686769485"/>
                                            <ScoreDistribution value="Setosa" recordCount="0.0" confidence="0.0"/>
                                            <ScoreDistribution value="Versicolor" recordCount="0.0" confidence="0.0"/>
                                            <ScoreDistribution value="Virginica" recordCount="1.0" confidence="1.0"/>
                                        </Node>
                                        <Node id="10" score="Versicolor" recordCount="1.0">
                                            <SimplePredicate field="standardScaler(sepal_width)" operator="greaterThan" value="-0.5613370686769485"/>
                                            <ScoreDistribution value="Setosa" recordCount="0.0" confidence="0.0"/>
                                            <ScoreDistribution value="Versicolor" recordCount="2.0" confidence="1.0"/>
                                            <ScoreDistribution value="Virginica" recordCount="0.0" confidence="0.0"/>
                                        </Node>
                                    </Node>
                                    <Node id="11" score="Virginica" recordCount="5.0">
                                        <SimplePredicate field="petal_length" operator="greaterThan" value="4.8500001430511475"/>
                                        <ScoreDistribution value="Setosa" recordCount="0.0" confidence="0.0"/>
                                        <ScoreDistribution value="Versicolor" recordCount="0.0" confidence="0.0"/>
                                        <ScoreDistribution value="Virginica" recordCount="6.0" confidence="1.0"/>
                                    </Node>
                                </Node>
                                <Node id="12" score="Virginica" recordCount="17.0">
                                    <SimplePredicate field="petal_width" operator="greaterThan" value="1.8499999642372131"/>
                                    <ScoreDistribution value="Setosa" recordCount="0.0" confidence="0.0"/>
                                    <ScoreDistribution value="Versicolor" recordCount="0.0" confidence="0.0"/>
                                    <ScoreDistribution value="Virginica" recordCount="25.0" confidence="1.0"/>
                                </Node>
                            </Node>
                        </Node>
                    </Node>
                </TreeModel>
            </Segment>
            <Segment id="8" weight="1">
                <True/>
                <TreeModel modelName="DecisionTreeClassifier" functionName="classification" missingValuePenalty="1.0">
                    <MiningSchema>
                        <MiningField name="sepal_length" usageType="active"/>
                        <MiningField name="sepal_width" usageType="active"/>
                        <MiningField name="petal_length" usageType="active"/>
                        <MiningField name="petal_width" usageType="active"/>
                    </MiningSchema>
                    <Node id="0" recordCount="62.0">
                        <True/>
                        <Node id="1" recordCount="41.0">
                            <SimplePredicate field="petal_width" operator="lessOrEqual" value="1.75"/>
                            <Node id="2" score="Setosa" recordCount="18.0">
                                <SimplePredicate field="petal_length" operator="lessOrEqual" value="2.699999988079071"/>
                                <ScoreDistribution value="Setosa" recordCount="27.0" confidence="1.0"/>
                                <ScoreDistribution value="Versicolor" recordCount="0.0" confidence="0.0"/>
                                <ScoreDistribution value="Virginica" recordCount="0.0" confidence="0.0"/>
                            </Node>
                            <Node id="3" recordCount="23.0">
                                <SimplePredicate field="petal_length" operator="greaterThan" value="2.699999988079071"/>
                                <Node id="4" recordCount="7.0">
                                    <SimplePredicate field="standardScaler(sepal_width)" operator="lessOrEqual" value="-1.0258918702602386"/>
                                    <Node id="5" score="Versicolor" recordCount="5.0">
                                        <SimplePredicate field="standardScaler(sepal_length)" operator="lessOrEqual" value="0.14670421183109283"/>
                                        <ScoreDistribution value="Setosa" recordCount="0.0" confidence="0.0"/>
                                        <ScoreDistribution value="Versicolor" recordCount="8.0" confidence="1.0"/>
                                        <ScoreDistribution value="Virginica" recordCount="0.0" confidence="0.0"/>
                                    </Node>
                                    <Node id="6" recordCount="2.0">
                                        <SimplePredicate field="standardScaler(sepal_length)" operator="greaterThan" value="0.14670421183109283"/>
                                        <Node id="7" score="Virginica" recordCount="1.0">
                                            <SimplePredicate field="petal_width" operator="lessOrEqual" value="1.449999988079071"/>
                                            <ScoreDistribution value="Setosa" recordCount="0.0" confidence="0.0"/>
                                            <ScoreDistribution value="Versicolor" recordCount="0.0" confidence="0.0"/>
                                            <ScoreDistribution value="Virginica" recordCount="1.0" confidence="1.0"/>
                                        </Node>
                                        <Node id="8" score="Versicolor" recordCount="1.0">
                                            <SimplePredicate field="petal_width" operator="greaterThan" value="1.449999988079071"/>
                                            <ScoreDistribution value="Setosa" recordCount="0.0" confidence="0.0"/>
                                            <ScoreDistribution value="Versicolor" recordCount="1.0" confidence="1.0"/>
                                            <ScoreDistribution value="Virginica" recordCount="0.0" confidence="0.0"/>
                                        </Node>
                                    </Node>
                                </Node>
                                <Node id="9" score="Versicolor" recordCount="16.0">
                                    <SimplePredicate field="standardScaler(sepal_width)" operator="greaterThan" value="-1.0258918702602386"/>
                                    <ScoreDistribution value="Setosa" recordCount="0.0" confidence="0.0"/>
                                    <ScoreDistribution value="Versicolor" recordCount="24.0" confidence="1.0"/>
                                    <ScoreDistribution value="Virginica" recordCount="0.0" confidence="0.0"/>
                                </Node>
                            </Node>
                        </Node>
                        <Node id="10" recordCount="21.0">
                            <SimplePredicate field="petal_width" operator="greaterThan" value="1.75"/>
                            <Node id="11" recordCount="2.0">
                                <SimplePredicate field="petal_length" operator="lessOrEqual" value="4.8500001430511475"/>
                                <Node id="12" score="Versicolor" recordCount="1.0">
                                    <SimplePredicate field="standardScaler(sepal_length)" operator="lessOrEqual" value="0.03220336325466633"/>
                                    <ScoreDistribution value="Setosa" recordCount="0.0" confidence="0.0"/>
                                    <ScoreDistribution value="Versicolor" recordCount="1.0" confidence="1.0"/>
                                    <ScoreDistribution value="Virginica" recordCount="0.0" confidence="0.0"/>
                                </Node>
                                <Node id="13" score="Virginica" recordCount="1.0">
                                    <SimplePredicate field="standardScaler(sepal_length)" operator="greaterThan" value="0.03220336325466633"/>
                                    <ScoreDistribution value="Setosa" recordCount="0.0" confidence="0.0"/>
                                    <ScoreDistribution value="Versicolor" recordCount="0.0" confidence="0.0"/>
                                    <ScoreDistribution value="Virginica" recordCount="2.0" confidence="1.0"/>
                                </Node>
                            </Node>
                            <Node id="14" score="Virginica" recordCount="19.0">
                                <SimplePredicate field="petal_length" operator="greaterThan" value="4.8500001430511475"/>
                                <ScoreDistribution value="Setosa" recordCount="0.0" confidence="0.0"/>
                                <ScoreDistribution value="Versicolor" recordCount="0.0" confidence="0.0"/>
                                <ScoreDistribution value="Virginica" recordCount="32.0" confidence="1.0"/>
                            </Node>
                        </Node>
                    </Node>
                </TreeModel>
            </Segment>
            <Segment id="9" weight="1">
                <True/>
                <TreeModel modelName="DecisionTreeClassifier" functionName="classification" missingValuePenalty="1.0">
                    <MiningSchema>
                        <MiningField name="sepal_length" usageType="active"/>
                        <MiningField name="sepal_width" usageType="active"/>
                        <MiningField name="petal_length" usageType="active"/>
                        <MiningField name="petal_width" usageType="active"/>
                    </MiningSchema>
                    <Node id="0" recordCount="58.0">
                        <True/>
                        <Node id="1" score="Setosa" recordCount="20.0">
                            <SimplePredicate field="petal_width" operator="lessOrEqual" value="0.75"/>
                            <ScoreDistribution value="Setosa" recordCount="39.0" confidence="1.0"/>
                            <ScoreDistribution value="Versicolor" recordCount="0.0" confidence="0.0"/>
                            <ScoreDistribution value="Virginica" recordCount="0.0" confidence="0.0"/>
                        </Node>
                        <Node id="2" recordCount="38.0">
                            <SimplePredicate field="petal_width" operator="greaterThan" value="0.75"/>
                            <Node id="3" recordCount="20.0">
                                <SimplePredicate field="petal_width" operator="lessOrEqual" value="1.6500000357627869"/>
                                <Node id="4" score="Versicolor" recordCount="13.0">
                                    <SimplePredicate field="standardScaler(sepal_length)" operator="lessOrEqual" value="0.14670421183109283"/>
                                    <ScoreDistribution value="Setosa" recordCount="0.0" confidence="0.0"/>
                                    <ScoreDistribution value="Versicolor" recordCount="21.0" confidence="1.0"/>
                                    <ScoreDistribution value="Virginica" recordCount="0.0" confidence="0.0"/>
                                </Node>
                                <Node id="5" recordCount="7.0">
                                    <SimplePredicate field="standardScaler(sepal_length)" operator="greaterThan" value="0.14670421183109283"/>
                                    <Node id="6" score="Virginica" recordCount="1.0">
                                        <SimplePredicate field="standardScaler(sepal_length)" operator="lessOrEqual" value="0.3184554874897003"/>
                                        <ScoreDistribution value="Setosa" recordCount="0.0" confidence="0.0"/>
                                        <ScoreDistribution value="Versicolor" recordCount="0.0" confidence="0.0"/>
                                        <ScoreDistribution value="Virginica" recordCount="2.0" confidence="1.0"/>
                                    </Node>
                                    <Node id="7" score="Versicolor" recordCount="6.0">
                                        <SimplePredicate field="standardScaler(sepal_length)" operator="greaterThan" value="0.3184554874897003"/>
                                        <ScoreDistribution value="Setosa" recordCount="0.0" confidence="0.0"/>
                                        <ScoreDistribution value="Versicolor" recordCount="8.0" confidence="1.0"/>
                                        <ScoreDistribution value="Virginica" recordCount="0.0" confidence="0.0"/>
                                    </Node>
                                </Node>
                            </Node>
                            <Node id="8" score="Virginica" recordCount="18.0">
                                <SimplePredicate field="petal_width" operator="greaterThan" value="1.6500000357627869"/>
                                <ScoreDistribution value="Setosa" recordCount="0.0" confidence="0.0"/>
                                <ScoreDistribution value="Versicolor" recordCount="0.0" confidence="0.0"/>
                                <ScoreDistribution value="Virginica" recordCount="26.0" confidence="1.0"/>
                            </Node>
                        </Node>
                    </Node>
                </TreeModel>
            </Segment>
            <Segment id="10" weight="1">
                <True/>
                <TreeModel modelName="DecisionTreeClassifier" functionName="classification" missingValuePenalty="1.0">
                    <MiningSchema>
                        <MiningField name="sepal_length" usageType="active"/>
                        <MiningField name="sepal_width" usageType="active"/>
                        <MiningField name="petal_length" usageType="active"/>
                        <MiningField name="petal_width" usageType="active"/>
                    </MiningSchema>
                    <Node id="0" recordCount="56.0">
                        <True/>
                        <Node id="1" recordCount="37.0">
                            <SimplePredicate field="petal_length" operator="lessOrEqual" value="4.8500001430511475"/>
                            <Node id="2" score="Setosa" recordCount="19.0">
                                <SimplePredicate field="petal_width" operator="lessOrEqual" value="0.75"/>
                                <ScoreDistribution value="Setosa" recordCount="32.0" confidence="1.0"/>
                                <ScoreDistribution value="Versicolor" recordCount="0.0" confidence="0.0"/>
                                <ScoreDistribution value="Virginica" recordCount="0.0" confidence="0.0"/>
                            </Node>
                            <Node id="3" score="Versicolor" recordCount="18.0">
                                <SimplePredicate field="petal_width" operator="greaterThan" value="0.75"/>
                                <ScoreDistribution value="Setosa" recordCount="0.0" confidence="0.0"/>
                                <ScoreDistribution value="Versicolor" recordCount="24.0" confidence="1.0"/>
                                <ScoreDistribution value="Virginica" recordCount="0.0" confidence="0.0"/>
                            </Node>
                        </Node>
                        <Node id="4" recordCount="19.0">
                            <SimplePredicate field="petal_length" operator="greaterThan" value="4.8500001430511475"/>
                            <Node id="5" recordCount="3.0">
                                <SimplePredicate field="petal_length" operator="lessOrEqual" value="5.150000095367432"/>
                                <Node id="6" score="Virginica" recordCount="2.0">
                                    <SimplePredicate field="standardScaler(sepal_width)" operator="lessOrEqual" value="-0.44519834965467453"/>
                                    <ScoreDistribution value="Setosa" recordCount="0.0" confidence="0.0"/>
                                    <ScoreDistribution value="Versicolor" recordCount="0.0" confidence="0.0"/>
                                    <ScoreDistribution value="Virginica" recordCount="6.0" confidence="1.0"/>
                                </Node>
                                <Node id="7" score="Versicolor" recordCount="1.0">
                                    <SimplePredicate field="standardScaler(sepal_width)" operator="greaterThan" value="-0.44519834965467453"/>
                                    <ScoreDistribution value="Setosa" recordCount="0.0" confidence="0.0"/>
                                    <ScoreDistribution value="Versicolor" recordCount="1.0" confidence="1.0"/>
                                    <ScoreDistribution value="Virginica" recordCount="0.0" confidence="0.0"/>
                                </Node>
                            </Node>
                            <Node id="8" score="Virginica" recordCount="16.0">
                                <SimplePredicate field="petal_length" operator="greaterThan" value="5.150000095367432"/>
                                <ScoreDistribution value="Setosa" recordCount="0.0" confidence="0.0"/>
                                <ScoreDistribution value="Versicolor" recordCount="0.0" confidence="0.0"/>
                                <ScoreDistribution value="Virginica" recordCount="33.0" confidence="1.0"/>
                            </Node>
                        </Node>
                    </Node>
                </TreeModel>
            </Segment>
            <Segment id="11" weight="1">
                <True/>
                <TreeModel modelName="DecisionTreeClassifier" functionName="classification" missingValuePenalty="1.0">
                    <MiningSchema>
                        <MiningField name="sepal_length" usageType="active"/>
                        <MiningField name="sepal_width" usageType="active"/>
                        <MiningField name="petal_length" usageType="active"/>
                        <MiningField name="petal_width" usageType="active"/>
                    </MiningSchema>
                    <Node id="0" recordCount="56.0">
                        <True/>
                        <Node id="1" recordCount="30.0">
                            <SimplePredicate field="standardScaler(sepal_length)" operator="lessOrEqual" value="-0.19679833948612213"/>
                            <Node id="2" score="Setosa" recordCount="24.0">
                                <SimplePredicate field="petal_width" operator="lessOrEqual" value="0.75"/>
                                <ScoreDistribution value="Setosa" recordCount="47.0" confidence="1.0"/>
                                <ScoreDistribution value="Versicolor" recordCount="0.0" confidence="0.0"/>
                                <ScoreDistribution value="Virginica" recordCount="0.0" confidence="0.0"/>
                            </Node>
                            <Node id="3" score="Versicolor" recordCount="6.0">
                                <SimplePredicate field="petal_width" operator="greaterThan" value="0.75"/>
                                <ScoreDistribution value="Setosa" recordCount="0.0" confidence="0.0"/>
                                <ScoreDistribution value="Versicolor" recordCount="12.0" confidence="1.0"/>
                                <ScoreDistribution value="Virginica" recordCount="0.0" confidence="0.0"/>
                            </Node>
                        </Node>
                        <Node id="4" recordCount="26.0">
                            <SimplePredicate field="standardScaler(sepal_length)" operator="greaterThan" value="-0.19679833948612213"/>
                            <Node id="5" recordCount="10.0">
                                <SimplePredicate field="petal_length" operator="lessOrEqual" value="4.8500001430511475"/>
                                <Node id="6" score="Versicolor" recordCount="9.0">
                                    <SimplePredicate field="petal_width" operator="lessOrEqual" value="1.699999988079071"/>
                                    <ScoreDistribution value="Setosa" recordCount="0.0" confidence="0.0"/>
                                    <ScoreDistribution value="Versicolor" recordCount="12.0" confidence="1.0"/>
                                    <ScoreDistribution value="Virginica" recordCount="0.0" confidence="0.0"/>
                                </Node>
                                <Node id="7" score="Virginica" recordCount="1.0">
                                    <SimplePredicate field="petal_width" operator="greaterThan" value="1.699999988079071"/>
                                    <ScoreDistribution value="Setosa" recordCount="0.0" confidence="0.0"/>
                                    <ScoreDistribution value="Versicolor" recordCount="0.0" confidence="0.0"/>
                                    <ScoreDistribution value="Virginica" recordCount="1.0" confidence="1.0"/>
                                </Node>
                            </Node>
                            <Node id="8" score="Virginica" recordCount="16.0">
                                <SimplePredicate field="petal_length" operator="greaterThan" value="4.8500001430511475"/>
                                <ScoreDistribution value="Setosa" recordCount="0.0" confidence="0.0"/>
                                <ScoreDistribution value="Versicolor" recordCount="0.0" confidence="0.0"/>
                                <ScoreDistribution value="Virginica" recordCount="24.0" confidence="1.0"/>
                            </Node>
                        </Node>
                    </Node>
                </TreeModel>
            </Segment>
            <Segment id="12" weight="1">
                <True/>
                <TreeModel modelName="DecisionTreeClassifier" functionName="classification" missingValuePenalty="1.0">
                    <MiningSchema>
                        <MiningField name="sepal_length" usageType="active"/>
                        <MiningField name="sepal_width" usageType="active"/>
                        <MiningField name="petal_length" usageType="active"/>
                        <MiningField name="petal_width" usageType="active"/>
                    </MiningSchema>
                    <Node id="0" recordCount="64.0">
                        <True/>
                        <Node id="1" score="Setosa" recordCount="18.0">
                            <SimplePredicate field="petal_length" operator="lessOrEqual" value="2.599999964237213"/>
                            <ScoreDistribution value="Setosa" recordCount="30.0" confidence="1.0"/>
                            <ScoreDistribution value="Versicolor" recordCount="0.0" confidence="0.0"/>
                            <ScoreDistribution value="Virginica" recordCount="0.0" confidence="0.0"/>
                        </Node>
                        <Node id="2" recordCount="46.0">
                            <SimplePredicate field="petal_length" operator="greaterThan" value="2.599999964237213"/>
                            <Node id="3" score="Versicolor" recordCount="24.0">
                                <SimplePredicate field="petal_width" operator="lessOrEqual" value="1.550000011920929"/>
                                <ScoreDistribution value="Setosa" recordCount="0.0" confidence="0.0"/>
                                <ScoreDistribution value="Versicolor" recordCount="36.0" confidence="1.0"/>
                                <ScoreDistribution value="Virginica" recordCount="0.0" confidence="0.0"/>
                            </Node>
                            <Node id="4" recordCount="22.0">
                                <SimplePredicate field="petal_width" operator="greaterThan" value="1.550000011920929"/>
                                <Node id="5" recordCount="5.0">
                                    <SimplePredicate field="petal_length" operator="lessOrEqual" value="5.049999952316284"/>
                                    <Node id="6" score="Versicolor" recordCount="1.0">
                                        <SimplePredicate field="petal_width" operator="lessOrEqual" value="1.75"/>
                                        <ScoreDistribution value="Setosa" recordCount="0.0" confidence="0.0"/>
                                        <ScoreDistribution value="Versicolor" recordCount="1.0" confidence="1.0"/>
                                        <ScoreDistribution value="Virginica" recordCount="0.0" confidence="0.0"/>
                                    </Node>
                                    <Node id="7" recordCount="4.0">
                                        <SimplePredicate field="petal_width" operator="greaterThan" value="1.75"/>
                                        <Node id="8" score="Virginica" recordCount="3.0">
                                            <SimplePredicate field="standardScaler(sepal_width)" operator="lessOrEqual" value="0.01935645192861557"/>
                                            <ScoreDistribution value="Setosa" recordCount="0.0" confidence="0.0"/>
                                            <ScoreDistribution value="Versicolor" recordCount="0.0" confidence="0.0"/>
                                            <ScoreDistribution value="Virginica" recordCount="4.0" confidence="1.0"/>
                                        </Node>
                                        <Node id="9" score="Versicolor" recordCount="1.0">
                                            <SimplePredicate field="standardScaler(sepal_width)" operator="greaterThan" value="0.01935645192861557"/>
                                            <ScoreDistribution value="Setosa" recordCount="0.0" confidence="0.0"/>
                                            <ScoreDistribution value="Versicolor" recordCount="1.0" confidence="1.0"/>
                                            <ScoreDistribution value="Virginica" recordCount="0.0" confidence="0.0"/>
                                        </Node>
                                    </Node>
                                </Node>
                                <Node id="10" score="Virginica" recordCount="17.0">
                                    <SimplePredicate field="petal_length" operator="greaterThan" value="5.049999952316284"/>
                                    <ScoreDistribution value="Setosa" recordCount="0.0" confidence="0.0"/>
                                    <ScoreDistribution value="Versicolor" recordCount="0.0" confidence="0.0"/>
                                    <ScoreDistribution value="Virginica" recordCount="24.0" confidence="1.0"/>
                                </Node>
                            </Node>
                        </Node>
                    </Node>
                </TreeModel>
            </Segment>
            <Segment id="13" weight="1">
                <True/>
                <TreeModel modelName="DecisionTreeClassifier" functionName="classification" missingValuePenalty="1.0">
                    <MiningSchema>
                        <MiningField name="sepal_length" usageType="active"/>
                        <MiningField name="sepal_width" usageType="active"/>
                        <MiningField name="petal_length" usageType="active"/>
                        <MiningField name="petal_width" usageType="active"/>
                    </MiningSchema>
                    <Node id="0" recordCount="62.0">
                        <True/>
                        <Node id="1" recordCount="22.0">
                            <SimplePredicate field="standardScaler(sepal_length)" operator="lessOrEqual" value="-0.42580004036426544"/>
                            <Node id="2" score="Setosa" recordCount="20.0">
                                <SimplePredicate field="petal_length" operator="lessOrEqual" value="3.199999988079071"/>
                                <ScoreDistribution value="Setosa" recordCount="34.0" confidence="1.0"/>
                                <ScoreDistribution value="Versicolor" recordCount="0.0" confidence="0.0"/>
                                <ScoreDistribution value="Virginica" recordCount="0.0" confidence="0.0"/>
                            </Node>
                            <Node id="3" recordCount="2.0">
                                <SimplePredicate field="petal_length" operator="greaterThan" value="3.199999988079071"/>
                                <Node id="4" score="Versicolor" recordCount="1.0">
                                    <SimplePredicate field="petal_width" operator="lessOrEqual" value="1.600000023841858"/>
                                    <ScoreDistribution value="Setosa" recordCount="0.0" confidence="0.0"/>
                                    <ScoreDistribution value="Versicolor" recordCount="2.0" confidence="1.0"/>
                                    <ScoreDistribution value="Virginica" recordCount="0.0" confidence="0.0"/>
                                </Node>
                                <Node id="5" score="Virginica" recordCount="1.0">
                                    <SimplePredicate field="petal_width" operator="greaterThan" value="1.600000023841858"/>
                                    <ScoreDistribution value="Setosa" recordCount="0.0" confidence="0.0"/>
                                    <ScoreDistribution value="Versicolor" recordCount="0.0" confidence="0.0"/>
                                    <ScoreDistribution value="Virginica" recordCount="2.0" confidence="1.0"/>
                                </Node>
                            </Node>
                        </Node>
                        <Node id="6" recordCount="40.0">
                            <SimplePredicate field="standardScaler(sepal_length)" operator="greaterThan" value="-0.42580004036426544"/>
                            <Node id="7" recordCount="20.0">
                                <SimplePredicate field="petal_length" operator="lessOrEqual" value="4.8500001430511475"/>
                                <Node id="8" recordCount="17.0">
                                    <SimplePredicate field="standardScaler(sepal_width)" operator="lessOrEqual" value="1.0646047443151474"/>
                                    <Node id="9" score="Versicolor" recordCount="15.0">
                                        <SimplePredicate field="petal_length" operator="lessOrEqual" value="4.75"/>
                                        <ScoreDistribution value="Setosa" recordCount="0.0" confidence="0.0"/>
                                        <ScoreDistribution value="Versicolor" recordCount="23.0" confidence="1.0"/>
                                        <ScoreDistribution value="Virginica" recordCount="0.0" confidence="0.0"/>
                                    </Node>
                                    <Node id="10" recordCount="2.0">
                                        <SimplePredicate field="petal_length" operator="greaterThan" value="4.75"/>
                                        <Node id="11" score="Virginica" recordCount="1.0">
                                            <SimplePredicate field="standardScaler(sepal_width)" operator="lessOrEqual" value="0.01935645192861557"/>
                                            <ScoreDistribution value="Setosa" recordCount="0.0" confidence="0.0"/>
                                            <ScoreDistribution value="Versicolor" recordCount="0.0" confidence="0.0"/>
                                            <ScoreDistribution value="Virginica" recordCount="1.0" confidence="1.0"/>
                                        </Node>
                                        <Node id="12" score="Versicolor" recordCount="1.0">
                                            <SimplePredicate field="standardScaler(sepal_width)" operator="greaterThan" value="0.01935645192861557"/>
                                            <ScoreDistribution value="Setosa" recordCount="0.0" confidence="0.0"/>
                                            <ScoreDistribution value="Versicolor" recordCount="1.0" confidence="1.0"/>
                                            <ScoreDistribution value="Virginica" recordCount="0.0" confidence="0.0"/>
                                        </Node>
                                    </Node>
                                </Node>
                                <Node id="13" score="Setosa" recordCount="3.0">
                                    <SimplePredicate field="standardScaler(sepal_width)" operator="greaterThan" value="1.0646047443151474"/>
                                    <ScoreDistribution value="Setosa" recordCount="5.0" confidence="1.0"/>
                                    <ScoreDistribution value="Versicolor" recordCount="0.0" confidence="0.0"/>
                                    <ScoreDistribution value="Virginica" recordCount="0.0" confidence="0.0"/>
                                </Node>
                            </Node>
                            <Node id="14" recordCount="20.0">
                                <SimplePredicate field="petal_length" operator="greaterThan" value="4.8500001430511475"/>
                                <Node id="15" score="Virginica" recordCount="11.0">
                                    <SimplePredicate field="standardScaler(sepal_length)" operator="lessOrEqual" value="1.0627110004425049"/>
                                    <ScoreDistribution value="Setosa" recordCount="0.0" confidence="0.0"/>
                                    <ScoreDistribution value="Versicolor" recordCount="0.0" confidence="0.0"/>
                                    <ScoreDistribution value="Virginica" recordCount="13.0" confidence="1.0"/>
                                </Node>
                                <Node id="16" recordCount="9.0">
                                    <SimplePredicate field="standardScaler(sepal_length)" operator="greaterThan" value="1.0627110004425049"/>
                                    <Node id="17" score="Versicolor" recordCount="1.0">
                                        <SimplePredicate field="petal_width" operator="lessOrEqual" value="1.550000011920929"/>
                                        <ScoreDistribution value="Setosa" recordCount="0.0" confidence="0.0"/>
                                        <ScoreDistribution value="Versicolor" recordCount="1.0" confidence="1.0"/>
                                        <ScoreDistribution value="Virginica" recordCount="0.0" confidence="0.0"/>
                                    </Node>
                                    <Node id="18" score="Virginica" recordCount="8.0">
                                        <SimplePredicate field="petal_width" operator="greaterThan" value="1.550000011920929"/>
                                        <ScoreDistribution value="Setosa" recordCount="0.0" confidence="0.0"/>
                                        <ScoreDistribution value="Versicolor" recordCount="0.0" confidence="0.0"/>
                                        <ScoreDistribution value="Virginica" recordCount="14.0" confidence="1.0"/>
                                    </Node>
                                </Node>
                            </Node>
                        </Node>
                    </Node>
                </TreeModel>
            </Segment>
            <Segment id="14" weight="1">
                <True/>
                <TreeModel modelName="DecisionTreeClassifier" functionName="classification" missingValuePenalty="1.0">
                    <MiningSchema>
                        <MiningField name="sepal_length" usageType="active"/>
                        <MiningField name="sepal_width" usageType="active"/>
                        <MiningField name="petal_length" usageType="active"/>
                        <MiningField name="petal_width" usageType="active"/>
                    </MiningSchema>
                    <Node id="0" recordCount="62.0">
                        <True/>
                        <Node id="1" score="Setosa" recordCount="21.0">
                            <SimplePredicate field="petal_width" operator="lessOrEqual" value="0.7000000029802322"/>
                            <ScoreDistribution value="Setosa" recordCount="33.0" confidence="1.0"/>
                            <ScoreDistribution value="Versicolor" recordCount="0.0" confidence="0.0"/>
                            <ScoreDistribution value="Virginica" recordCount="0.0" confidence="0.0"/>
                        </Node>
                        <Node id="2" recordCount="41.0">
                            <SimplePredicate field="petal_width" operator="greaterThan" value="0.7000000029802322"/>
                            <Node id="3" score="Versicolor" recordCount="19.0">
                                <SimplePredicate field="petal_length" operator="lessOrEqual" value="4.8500001430511475"/>
                                <ScoreDistribution value="Setosa" recordCount="0.0" confidence="0.0"/>
                                <ScoreDistribution value="Versicolor" recordCount="33.0" confidence="1.0"/>
                                <ScoreDistribution value="Virginica" recordCount="0.0" confidence="0.0"/>
                            </Node>
                            <Node id="4" recordCount="22.0">
                                <SimplePredicate field="petal_length" operator="greaterThan" value="4.8500001430511475"/>
                                <Node id="5" recordCount="3.0">
                                    <SimplePredicate field="petal_length" operator="lessOrEqual" value="5.049999952316284"/>
                                    <Node id="6" score="Virginica" recordCount="2.0">
                                        <SimplePredicate field="petal_length" operator="lessOrEqual" value="4.950000047683716"/>
                                        <ScoreDistribution value="Setosa" recordCount="0.0" confidence="0.0"/>
                                        <ScoreDistribution value="Versicolor" recordCount="0.0" confidence="0.0"/>
                                        <ScoreDistribution value="Virginica" recordCount="2.0" confidence="1.0"/>
                                    </Node>
                                    <Node id="7" score="Versicolor" recordCount="1.0">
                                        <SimplePredicate field="petal_length" operator="greaterThan" value="4.950000047683716"/>
                                        <ScoreDistribution value="Setosa" recordCount="0.0" confidence="0.0"/>
                                        <ScoreDistribution value="Versicolor" recordCount="1.0" confidence="1.0"/>
                                        <ScoreDistribution value="Virginica" recordCount="0.0" confidence="0.0"/>
                                    </Node>
                                </Node>
                                <Node id="8" score="Virginica" recordCount="19.0">
                                    <SimplePredicate field="petal_length" operator="greaterThan" value="5.049999952316284"/>
                                    <ScoreDistribution value="Setosa" recordCount="0.0" confidence="0.0"/>
                                    <ScoreDistribution value="Versicolor" recordCount="0.0" confidence="0.0"/>
                                    <ScoreDistribution value="Virginica" recordCount="27.0" confidence="1.0"/>
                                </Node>
                            </Node>
                        </Node>
                    </Node>
                </TreeModel>
            </Segment>
            <Segment id="15" weight="1">
                <True/>
                <TreeModel modelName="DecisionTreeClassifier" functionName="classification" missingValuePenalty="1.0">
                    <MiningSchema>
                        <MiningField name="sepal_length" usageType="active"/>
                        <MiningField name="sepal_width" usageType="active"/>
                        <MiningField name="petal_length" usageType="active"/>
                        <MiningField name="petal_width" usageType="active"/>
                    </MiningSchema>
                    <Node id="0" recordCount="60.0">
                        <True/>
                        <Node id="1" recordCount="24.0">
                            <SimplePredicate field="standardScaler(sepal_length)" operator="lessOrEqual" value="-0.19679833948612213"/>
                            <Node id="2" score="Setosa" recordCount="18.0">
                                <SimplePredicate field="petal_length" operator="lessOrEqual" value="2.649999976158142"/>
                                <ScoreDistribution value="Setosa" recordCount="28.0" confidence="1.0"/>
                                <ScoreDistribution value="Versicolor" recordCount="0.0" confidence="0.0"/>
                                <ScoreDistribution value="Virginica" recordCount="0.0" confidence="0.0"/>
                            </Node>
                            <Node id="3" recordCount="6.0">
                                <SimplePredicate field="petal_length" operator="greaterThan" value="2.649999976158142"/>
                                <Node id="4" score="Versicolor" recordCount="4.0">
                                    <SimplePredicate field="petal_length" operator="lessOrEqual" value="4.299999952316284"/>
                                    <ScoreDistribution value="Setosa" recordCount="0.0" confidence="0.0"/>
                                    <ScoreDistribution value="Versicolor" recordCount="5.0" confidence="1.0"/>
                                    <ScoreDistribution value="Virginica" recordCount="0.0" confidence="0.0"/>
                                </Node>
                                <Node id="5" score="Virginica" recordCount="2.0">
                                    <SimplePredicate field="petal_length" operator="greaterThan" value="4.299999952316284"/>
                                    <ScoreDistribution value="Setosa" recordCount="0.0" confidence="0.0"/>
                                    <ScoreDistribution value="Versicolor" recordCount="0.0" confidence="0.0"/>
                                    <ScoreDistribution value="Virginica" recordCount="2.0" confidence="1.0"/>
                                </Node>
                            </Node>
                        </Node>
                        <Node id="6" recordCount="36.0">
                            <SimplePredicate field="standardScaler(sepal_length)" operator="greaterThan" value="-0.19679833948612213"/>
                            <Node id="7" recordCount="16.0">
                                <SimplePredicate field="petal_width" operator="lessOrEqual" value="1.75"/>
                                <Node id="8" recordCount="14.0">
                                    <SimplePredicate field="petal_length" operator="lessOrEqual" value="5.299999952316284"/>
                                    <Node id="9" score="Versicolor" recordCount="13.0">
                                        <SimplePredicate field="standardScaler(sepal_width)" operator="lessOrEqual" value="1.1807434409856796"/>
                                        <ScoreDistribution value="Setosa" recordCount="0.0" confidence="0.0"/>
                                        <ScoreDistribution value="Versicolor" recordCount="23.0" confidence="1.0"/>
                                        <ScoreDistribution value="Virginica" recordCount="0.0" confidence="0.0"/>
                                    </Node>
                                    <Node id="10" score="Setosa" recordCount="1.0">
                                        <SimplePredicate field="standardScaler(sepal_width)" operator="greaterThan" value="1.1807434409856796"/>
                                        <ScoreDistribution value="Setosa" recordCount="1.0" confidence="1.0"/>
                                        <ScoreDistribution value="Versicolor" recordCount="0.0" confidence="0.0"/>
                                        <ScoreDistribution value="Virginica" recordCount="0.0" confidence="0.0"/>
                                    </Node>
                                </Node>
                                <Node id="11" score="Virginica" recordCount="2.0">
                                    <SimplePredicate field="petal_length" operator="greaterThan" value="5.299999952316284"/>
                                    <ScoreDistribution value="Setosa" recordCount="0.0" confidence="0.0"/>
                                    <ScoreDistribution value="Versicolor" recordCount="0.0" confidence="0.0"/>
                                    <ScoreDistribution value="Virginica" recordCount="2.0" confidence="1.0"/>
                                </Node>
                            </Node>
                            <Node id="12" recordCount="20.0">
                                <SimplePredicate field="petal_width" operator="greaterThan" value="1.75"/>
                                <Node id="13" score="Versicolor" recordCount="1.0">
                                    <SimplePredicate field="petal_length" operator="lessOrEqual" value="4.8500001430511475"/>
                                    <ScoreDistribution value="Setosa" recordCount="0.0" confidence="0.0"/>
                                    <ScoreDistribution value="Versicolor" recordCount="1.0" confidence="1.0"/>
                                    <ScoreDistribution value="Virginica" recordCount="0.0" confidence="0.0"/>
                                </Node>
                                <Node id="14" score="Virginica" recordCount="19.0">
                                    <SimplePredicate field="petal_length" operator="greaterThan" value="4.8500001430511475"/>
                                    <ScoreDistribution value="Setosa" recordCount="0.0" confidence="0.0"/>
                                    <ScoreDistribution value="Versicolor" recordCount="0.0" confidence="0.0"/>
                                    <ScoreDistribution value="Virginica" recordCount="34.0" confidence="1.0"/>
                                </Node>
                            </Node>
                        </Node>
                    </Node>
                </TreeModel>
            </Segment>
            <Segment id="16" weight="1">
                <True/>
                <TreeModel modelName="DecisionTreeClassifier" functionName="classification" missingValuePenalty="1.0">
                    <MiningSchema>
                        <MiningField name="sepal_length" usageType="active"/>
                        <MiningField name="sepal_width" usageType="active"/>
                        <MiningField name="petal_length" usageType="active"/>
                        <MiningField name="petal_width" usageType="active"/>
                    </MiningSchema>
                    <Node id="0" recordCount="62.0">
                        <True/>
                        <Node id="1" recordCount="35.0">
                            <SimplePredicate field="petal_length" operator="lessOrEqual" value="4.8500001430511475"/>
                            <Node id="2" score="Setosa" recordCount="19.0">
                                <SimplePredicate field="petal_length" operator="lessOrEqual" value="2.600000023841858"/>
                                <ScoreDistribution value="Setosa" recordCount="26.0" confidence="1.0"/>
                                <ScoreDistribution value="Versicolor" recordCount="0.0" confidence="0.0"/>
                                <ScoreDistribution value="Virginica" recordCount="0.0" confidence="0.0"/>
                            </Node>
                            <Node id="3" score="Versicolor" recordCount="16.0">
                                <SimplePredicate field="petal_length" operator="greaterThan" value="2.600000023841858"/>
                                <ScoreDistribution value="Setosa" recordCount="0.0" confidence="0.0"/>
                                <ScoreDistribution value="Versicolor" recordCount="24.0" confidence="1.0"/>
                                <ScoreDistribution value="Virginica" recordCount="0.0" confidence="0.0"/>
                            </Node>
                        </Node>
                        <Node id="4" score="Virginica" recordCount="27.0">
                            <SimplePredicate field="petal_length" operator="greaterThan" value="4.8500001430511475"/>
                            <ScoreDistribution value="Setosa" recordCount="0.0" confidence="0.0"/>
                            <ScoreDistribution value="Versicolor" recordCount="0.0" confidence="0.0"/>
                            <ScoreDistribution value="Virginica" recordCount="46.0" confidence="1.0"/>
                        </Node>
                    </Node>
                </TreeModel>
            </Segment>
            <Segment id="17" weight="1">
                <True/>
                <TreeModel modelName="DecisionTreeClassifier" functionName="classification" missingValuePenalty="1.0">
                    <MiningSchema>
                        <MiningField name="sepal_length" usageType="active"/>
                        <MiningField name="sepal_width" usageType="active"/>
                        <MiningField name="petal_length" usageType="active"/>
                        <MiningField name="petal_width" usageType="active"/>
                    </MiningSchema>
                    <Node id="0" recordCount="58.0">
                        <True/>
                        <Node id="1" score="Setosa" recordCount="19.0">
                            <SimplePredicate field="petal_width" operator="lessOrEqual" value="0.7000000029802322"/>
                            <ScoreDistribution value="Setosa" recordCount="35.0" confidence="1.0"/>
                            <ScoreDistribution value="Versicolor" recordCount="0.0" confidence="0.0"/>
                            <ScoreDistribution value="Virginica" recordCount="0.0" confidence="0.0"/>
                        </Node>
                        <Node id="2" recordCount="39.0">
                            <SimplePredicate field="petal_width" operator="greaterThan" value="0.7000000029802322"/>
                            <Node id="3" recordCount="24.0">
                                <SimplePredicate field="petal_length" operator="lessOrEqual" value="5.049999952316284"/>
                                <Node id="4" score="Virginica" recordCount="1.0">
                                    <SimplePredicate field="standardScaler(sepal_length)" operator="lessOrEqual" value="-0.8838033974170685"/>
                                    <ScoreDistribution value="Setosa" recordCount="0.0" confidence="0.0"/>
                                    <ScoreDistribution value="Versicolor" recordCount="0.0" confidence="0.0"/>
                                    <ScoreDistribution value="Virginica" recordCount="2.0" confidence="1.0"/>
                                </Node>
                                <Node id="5" recordCount="23.0">
                                    <SimplePredicate field="standardScaler(sepal_length)" operator="greaterThan" value="-0.8838033974170685"/>
                                    <Node id="6" score="Versicolor" recordCount="20.0">
                                        <SimplePredicate field="petal_width" operator="lessOrEqual" value="1.75"/>
                                        <ScoreDistribution value="Setosa" recordCount="0.0" confidence="0.0"/>
                                        <ScoreDistribution value="Versicolor" recordCount="33.0" confidence="1.0"/>
                                        <ScoreDistribution value="Virginica" recordCount="0.0" confidence="0.0"/>
                                    </Node>
                                    <Node id="7" recordCount="3.0">
                                        <SimplePredicate field="petal_width" operator="greaterThan" value="1.75"/>
                                        <Node id="8" score="Virginica" recordCount="2.0">
